digraph Tree {
node [shape=box, style="filled", color="black", fontname="helvetica"] ;
edge [fontname="helvetica"] ;
0 [label="Income composition of resources <= 0.568\nsquared_error = 77.337\nsamples = 1649\nvalue = 69.302", fillcolor="#eead7e"] ;
1 [label=" HIV/AIDS <= 1.65\nsquared_error = 46.851\nsamples = 511\nvalue = 59.691", fillcolor="#f5cfb4"] ;
0 -> 1 [labeldistance=2.5, labelangle=45, headlabel="True"] ;
2 [label="Adult Mortality <= 245.5\nsquared_error = 21.174\nsamples = 284\nvalue = 63.906", fillcolor="#f2c09c"] ;
1 -> 2 ;
3 [label="Schooling <= 12.25\nsquared_error = 12.108\nsamples = 185\nvalue = 66.072", fillcolor="#f0b990"] ;
2 -> 3 ;
4 [label="squared_error = 9.623\nsamples = 172\nvalue = 65.631", fillcolor="#f1ba93"] ;
3 -> 4 ;
5 [label="squared_error = 8.26\nsamples = 13\nvalue = 71.915", fillcolor="#eca470"] ;
3 -> 5 ;
6 [label="Adult Mortality <= 373.5\nsquared_error = 12.963\nsamples = 99\nvalue = 59.859", fillcolor="#f5cfb3"] ;
2 -> 6 ;
7 [label="squared_error = 8.026\nsamples = 95\nvalue = 60.328", fillcolor="#f5cdb0"] ;
6 -> 7 ;
8 [label="squared_error = 0.44\nsamples = 4\nvalue = 48.7", fillcolor="#fdf6f2"] ;
6 -> 8 ;
9 [label=" HIV/AIDS <= 16.25\nsquared_error = 28.922\nsamples = 227\nvalue = 54.416", fillcolor="#f9e2d2"] ;
1 -> 9 ;
10 [label="Adult Mortality <= 347.5\nsquared_error = 19.621\nsamples = 186\nvalue = 56.031", fillcolor="#f8dcc9"] ;
9 -> 10 ;
11 [label="squared_error = 18.597\nsamples = 100\nvalue = 58.138", fillcolor="#f6d5bd"] ;
10 -> 11 ;
12 [label="squared_error = 9.649\nsamples = 86\nvalue = 53.581", fillcolor="#fae5d6"] ;
10 -> 12 ;
13 [label="Year <= 2007.5\nsquared_error = 5.615\nsamples = 41\nvalue = 47.09", fillcolor="#fefcfb"] ;
9 -> 13 ;
14 [label="squared_error = 2.847\nsamples = 33\nvalue = 46.294", fillcolor="#ffffff"] ;
13 -> 14 ;
15 [label="squared_error = 3.624\nsamples = 8\nvalue = 50.375", fillcolor="#fcf0e8"] ;
13 -> 15 ;
16 [label="Income composition of resources <= 0.8\nsquared_error = 30.915\nsamples = 1138\nvalue = 73.618", fillcolor="#eb9e66"] ;
0 -> 16 [labeldistance=2.5, labelangle=-45, headlabel="False"] ;
17 [label="Adult Mortality <= 216.5\nsquared_error = 19.536\nsamples = 874\nvalue = 71.651", fillcolor="#eca571"] ;
16 -> 17 ;
18 [label="Income composition of resources <= 0.7\nsquared_error = 9.446\nsamples = 734\nvalue = 72.903", fillcolor="#eba06a"] ;
17 -> 18 ;
19 [label="squared_error = 9.868\nsamples = 365\nvalue = 71.512", fillcolor="#eca572"] ;
18 -> 19 ;
20 [label="squared_error = 5.222\nsamples = 369\nvalue = 74.279", fillcolor="#ea9b62"] ;
18 -> 20 ;
21 [label="Adult Mortality <= 382.0\nsquared_error = 21.099\nsamples = 140\nvalue = 65.084", fillcolor="#f1bc96"] ;
17 -> 21 ;
22 [label="squared_error = 6.942\nsamples = 122\nvalue = 66.53", fillcolor="#f0b78e"] ;
21 -> 22 ;
23 [label="squared_error = 6.824\nsamples = 18\nvalue = 55.283", fillcolor="#f8dfcd"] ;
21 -> 23 ;
24 [label=" thinness  1-19 years <= 1.85\nsquared_error = 13.339\nsamples = 264\nvalue = 80.132", fillcolor="#e68642"] ;
16 -> 24 ;
25 [label="Income composition of resources <= 0.825\nsquared_error = 8.352\nsamples = 224\nvalue = 81.146", fillcolor="#e5833c"] ;
24 -> 25 ;
26 [label="squared_error = 3.733\nsamples = 39\nvalue = 78.633", fillcolor="#e78c4a"] ;
25 -> 26 ;
27 [label="squared_error = 7.715\nsamples = 185\nvalue = 81.675", fillcolor="#e58139"] ;
25 -> 27 ;
28 [label="Adult Mortality <= 158.5\nsquared_error = 3.314\nsamples = 40\nvalue = 74.458", fillcolor="#ea9b61"] ;
24 -> 28 ;
29 [label="squared_error = 2.235\nsamples = 20\nvalue = 75.495", fillcolor="#ea975c"] ;
28 -> 29 ;
30 [label="squared_error = 2.24\nsamples = 20\nvalue = 73.42", fillcolor="#eb9e67"] ;
28 -> 30 ;
}